{"properties":{"input_node_count":18,"hidden_node_count":20,"output_node_count":18},"data":{"weights_ih":[-0.42905337,-0.2737759,-0.7088596,-0.28290606,-0.4986223,0.023225982,0.7450125,0.44412905,0.6557656,0.07994385,-0.123132266,0.19598137,0.17238246,0.1417785,-0.2636731,-0.76595485,-0.47646534,0.8434507,0.000831618,-0.47662497,0.6155705,-0.8649746,-0.18073751,0.867954,-0.28613123,-0.85239613,0.8381772,-0.72871274,-0.42373332,0.20498787,-0.4807079,-0.0017898446,0.1688377,0.66017455,0.3892544,0.94953954,1.0098181,0.4182714,0.187887,0.03153952,0.05134815,0.008352541,0.47963315,0.4457925,0.9099028,0.8222014,0.7993067,-0.9731447,0.64503896,0.3974854,-0.5109772,-0.35096717,-0.33500972,0.2272798,0.055834442,0.79426765,0.5450991,-0.97063214,-0.9807031,-0.55921865,0.9942494,-0.8522255,-0.3078206,0.5840852,0.8328547,0.68911296,0.9772707,-0.33580875,0.025890052,-0.7196859,0.45287064,-0.052908756,0.862421,0.9122336,-0.9414818,0.4617256,0.03585455,0.9816445,-0.34034014,-0.9491027,-0.66480005,-0.16179204,-0.05844327,0.54809123,-0.25459263,-1.0001197,0.80061406,0.08565544,-0.65241814,0.9582011,0.18065585,0.1584392,-0.6624865,0.11871807,-0.9916231,-0.7951217,0.42675695,-0.26455215,-0.57299805,0.4818765,-0.7965609,0.19633272,0.05780154,0.94955176,-0.48249584,-0.13754462,0.11372218,-0.8460789,0.46326274,0.41492683,0.11112744,-0.3094365,-0.50317794,0.9378987,0.25750616,-0.2764608,-0.3676512,-0.0058988323,-0.8935596,-0.34761727,0.8791558,-0.28634593,0.12884575,0.14088883,0.43605897,0.19500455,-0.14812586,0.449915,-0.8378859,0.62632966,0.398898,-0.7013591,0.81501096,-0.37947282,-0.23651631,-0.024215916,0.13733435,-0.9644204,0.4369418,0.45419264,-0.64873457,-0.60318446,-0.78894585,0.39557213,-0.5520168,-0.8469196,-0.50087184,-0.68213123,-0.38664272,-0.987021,-0.83982486,-0.6115584,0.7244979,0.10670978,-0.1387065,-0.99897254,-0.6949971,-0.10045506,-0.5668284,0.0039731935,-0.38131282,-0.58645225,-0.12828694,-0.8633079,-0.6956411,0.72035146,0.26535425,-0.38046822,-0.4882578,0.9779336,0.23765403,0.7364947,-0.65419096,-0.511113,0.86411047,0.26567027,-0.6537133,0.64795655,0.56382126,-0.8393407,0.837256,0.028950552,-0.80412173,0.48037142,-0.5804666,0.41006386,0.56610113,0.17088531,0.5644682,0.7894543,-0.7028773,-0.95248765,-0.14427313,-0.65096784,-0.9219604,0.06315013,0.98803806,0.81608087,-0.11186012,-0.95301366,-0.44023904,0.2846808,1.009941,-0.7705936,0.46062824,-0.010123919,0.9763514,-0.33045202,0.63946766,-0.7724161,0.93169904,0.8968526,-0.5640674,-0.03975847,-0.77850336,-0.3982328,0.5834693,0.79258865,0.7661471,0.32668704,-0.74717313,0.015641566,0.9834472,0.5862284,-0.8862462,-0.8731053,0.87957305,-0.21424702,-0.1143612,0.6451935,-0.45338956,0.8741159,0.33599412,-0.14525065,0.769262,-0.7182487,-0.6958039,0.32226947,0.9376295,0.30461806,-0.19621482,-0.9960984,-0.32527173,-0.33333552,-0.2598212,-0.029686503,-0.90678483,-0.322066,-0.45110193,-0.26968372,0.13249943,-0.68834925,0.48587126,-0.4415589,-0.4559423,0.7005069,0.49286127,0.56648296,-0.88513416,-0.01982691,-0.51168114,0.35280424,0.0866386,0.76306,0.9247919,-0.8481239,-0.25646633,-0.7213878,0.44517243,-0.8185576,0.85669845,0.68277186,0.34258857,-0.4252494,0.49884355,-0.7661819,0.5926558,-0.21892013,0.40944284,-0.04312858,-0.52675533,0.27919623,-0.022536008,0.37627798,0.89453197,-0.8136087,0.52655303,-0.19119978,-0.40985367,0.3733068,-0.60633415,0.7707621,-0.6666202,0.07809384,-0.8088523,-0.3381306,0.012982193,-0.33569425,0.6220094,0.25180268,-0.9110629,0.087890446,0.58631253,0.87074506,0.053167418,-0.023342762,0.30515897,-0.8425201,-0.17419612,0.21797107,0.662677,-0.30465165,0.59481657,-0.029941775,0.40921488,0.37630457,-0.06923154,-0.45359254,-0.53311527,-0.056842,-0.3060322,-0.5528402,-0.19129324,-0.95384246,-0.32091746,0.036353186,0.058700476,0.20062377,-0.48547605,0.0022047134,0.5146478,0.3296579,0.08658528,0.50491494,-0.88178164,-0.7810398,-0.7191192,-0.0006211349,-0.39932358,-0.61458635,-0.40227976,-0.46131608,0.49025866,-0.8157135,0.9725249,-0.18547413,-0.66215855,-0.34625426,-0.54374236,0.30321753,0.8831224,-0.3181653,0.6506354,-0.21309824,0.44868222,-0.6722771,-0.9514226,-0.54862404,0.12152925,-0.74069947],"weights_ho":[-0.5886736,-0.70385504,-1.0154405,0.20694739,-0.21052301,-0.6532121,0.65806454,-0.11026635,-0.32457852,-0.18633442,0.4118477,-0.44084665,-0.90881777,0.41076458,0.9786247,0.43286335,0.29398268,0.73353946,-0.47648582,0.05362111,0.48362988,0.08042098,0.6244039,-0.44911593,-0.23194827,-0.5536901,-0.17746457,0.8700845,0.16705136,-0.05430748,0.43604183,-0.40427038,0.8110226,-0.11195109,0.40884745,0.66586,0.90668696,0.79100996,0.16176821,0.1757044,-0.30609316,-0.56356776,0.40982756,-0.12825322,0.38715315,0.664547,0.19510023,-0.88869655,0.9582338,-0.3345002,0.4659169,0.428296,0.46950504,-0.11854428,0.23281057,0.6251548,0.85582197,-0.14076972,-0.13654324,0.9594998,-0.21324292,-0.9403394,-0.8981488,0.97954154,-0.22385359,0.53236485,-0.28680947,-0.87141395,-0.57019603,-0.9670404,0.46287796,0.17406067,0.8305216,0.91491497,-0.8758654,0.95142615,-0.7956425,-0.14519301,0.19555879,0.2639501,0.37602854,0.8216758,-0.13599785,0.9090407,0.8501711,-0.5503637,0.48561305,0.3132575,-0.8929305,-0.8763668,0.49196595,0.41466025,-0.9268901,-0.9289608,-0.9419981,-0.78372854,0.6855008,-0.94016224,-0.5783183,-0.839997,0.44381344,-0.28899407,-0.26744255,-0.13296261,-0.4827886,0.6753291,0.553646,-0.13621357,0.24156594,-0.2172551,-0.27755973,0.7575689,-0.43170524,0.90114605,-0.73876697,-0.70958185,-0.6213669,-0.057406515,-0.14988238,0.5061248,-0.40644395,-0.06949376,0.7994824,-0.90626687,0.3434276,0.2757884,0.6428949,-0.5557702,0.703602,0.21798605,0.6661654,0.19172528,-0.0351114,-0.75775594,-0.6621603,0.81161267,0.5320861,0.6367916,-0.296658,0.29663298,0.41544905,-0.05372221,0.5039588,0.7654114,0.03798607,0.17094009,-0.47881722,-0.024523018,0.8505066,-0.749063,-0.77215904,-0.8581554,-0.8196598,0.03411419,-0.30349106,-0.573201,0.52734774,-0.6610816,-0.38034713,0.38293514,-0.5174704,-0.91978043,-0.45852232,1.0063806,-0.17562935,0.070461325,0.6615313,0.40112787,0.56311655,-0.44189635,-0.30653644,-0.50918204,-0.9981061,0.3722413,-0.5793569,0.19184609,0.6383425,-0.5107796,-0.28092316,0.6106607,0.6804266,0.55412036,-0.026798494,-0.34408468,-0.13793476,0.94232816,0.10289073,0.29575363,0.3933974,-0.8189306,0.7792144,0.66939026,-0.6458265,-0.18589242,0.7552706,0.9579203,0.061974067,-0.74312246,0.6362487,-0.18132815,0.45179945,0.31380847,0.54457337,0.22779484,-0.54217017,-0.16474165,-0.4925688,0.043049812,-0.0040177256,0.83854234,0.7149063,0.6247,0.11828356,-0.36575925,0.86877733,0.40543744,0.7159057,-0.51592284,-0.4811639,-0.5591698,-0.23342773,-0.12892221,-0.48670265,0.330481,-0.29910025,-0.91225487,-0.23583178,-0.48052314,-0.18796487,-0.29164433,0.4832422,-0.8086065,0.41802368,0.264839,-0.33466417,-0.49948737,-0.75838476,0.6908931,0.794467,0.8911853,0.29911774,0.009817529,-0.8167324,-0.101344936,0.33495113,0.7291317,-0.12132825,-0.41374704,0.10835821,0.90717655,0.68506324,0.88075614,0.90996814,0.8387809,-0.99441576,-0.7706236,0.52158606,-0.12394616,-0.7619659,0.3966217,-0.35875246,-0.8093511,0.6633554,0.6884555,-0.010218816,0.2324927,0.81639344,-0.4192723,0.77676564,0.46865508,0.37666315,-0.74510425,0.5901807,0.030571235,-0.9623289,0.8795492,0.32677478,0.3972882,-0.31754717,-0.9186015,-0.5036286,0.54438627,0.66058236,0.59389687,-0.52035093,-0.9072633,0.16706361,0.7105709,0.33590654,0.79952013,-0.35768852,-0.2574657,0.36048836,-0.27247137,0.42352906,0.680022,-0.23835403,0.9012639,-0.662581,-0.35377052,0.17870612,-0.5828901,-0.33412674,-0.22109972,-0.3283183,0.4253969,0.16661699,0.20379159,0.036524136,0.25992915,-0.017905522,-0.60760635,0.7764364,-0.7091404,0.19629367,-0.75784373,-0.22115386,-0.55266064,-0.051831253,-0.13502195,-0.6465847,-0.6256699,0.31414133,0.13000298,-0.5035567,0.44262704,-0.5127025,0.3242643,-0.16821283,0.81390214,0.49177375,-0.8241829,0.8696031,-0.18292278,0.5508177,-0.91030526,-0.9436529,0.026467487,-0.38810477,-0.62808317,0.2198996,-0.32684547,-0.059903942,0.6500249,0.9967075,-0.14927939,0.7486971,-0.8931672,-0.00889636,-0.7087386,-0.035758346,-0.17145728,-1.01814,0.3925278,0.51261973,0.5670898,0.37147647,-0.7446618,0.4140315,0.54808336],"bias_h":[0.84310514,-0.79332125,0.41767916,-0.007054692,0.6309457,-0.12438002,0.49317682,-0.13202181,0.8633122,-0.75618756,0.8972154,-0.035342436,0.46782526,0.1116526,0.52108276,1.0146317,0.5628135,-1.0188624,-0.46123508,-0.4670725],"bias_o":[0.47626346,-0.8422538,0.47522557,0.68691593,0.2413762,-0.27595618,0.7093173,-0.110104576,0.85454744,0.35399956,-0.047756385,0.9176322,-0.09411166,-0.42420283,-0.7475236,-0.76715624,0.79674333,0.9933012]}}