{"properties":{"input_node_count":18,"hidden_node_count":20,"output_node_count":18},"data":{"weights_ih":[-0.20825684,-0.87572217,-0.88857764,0.620661,-0.5969052,-0.9267111,-0.12656473,-0.4574893,-0.6968764,0.65415055,-0.75251377,-0.59612316,-0.44753852,-0.07673294,-0.4633409,-0.8323138,-0.94471836,0.3591694,-0.20078823,0.6157664,-0.1596365,0.8265607,0.6187322,-0.5080632,-0.065321326,0.5609861,-1.009411,-0.67395806,-0.03482069,0.14045233,0.84841037,-0.7282499,-0.8385302,0.7580199,0.8367342,-0.10273726,0.10831953,-0.9163881,-1.0048934,0.43574724,-0.4627687,0.6163904,-0.24627401,0.8277838,0.019638684,0.75246894,-0.6843202,-0.576005,0.4389293,0.42330027,-0.41605452,0.40990824,0.69166875,0.7349686,-0.7765082,0.72677535,-0.15156077,0.5880505,0.66178465,0.6299862,-0.11797866,0.978644,0.22607835,-0.9805294,0.41925928,0.900698,0.9002758,-0.86961037,-0.31708676,-0.20228884,-0.8928146,0.8411377,-0.51182765,-0.69275665,-0.36753368,0.6591351,-0.59463066,0.10355436,0.56737065,0.91217047,0.23791271,-0.014762766,0.69410765,0.66535,-0.32024655,-0.7552751,0.19016568,0.38522875,-0.29501277,-0.26374108,0.86869603,-0.6743079,-0.7686031,-0.87437654,0.57092166,-0.4422829,-0.48991123,-0.98344857,-0.30307102,-0.706223,-0.40651914,0.33612254,0.75970733,-0.5475118,-0.6974915,-1.0217811,0.9939958,-0.29901156,0.76881593,-0.4595296,-0.18090366,0.18635483,-0.08472931,-0.8686283,-0.03927706,-0.08430323,0.72741395,0.105998755,0.09245678,0.7757288,-1.0006412,0.12051919,0.17078741,-0.83494866,0.41960853,0.5542572,-0.7908624,0.8741505,0.73678356,-0.677759,1.0017391,-0.9594626,0.57285655,0.9564462,-0.36650836,-0.6373357,0.8082557,0.40268466,0.29668245,-0.94127846,-0.5126166,0.17868581,-0.121931925,-0.9087593,-0.18891706,-0.5160802,-0.053838227,-0.56370354,0.26229784,0.14061156,0.7019977,0.89576566,-0.17777364,-0.9220572,0.061375283,0.67113376,0.9263564,0.6575602,0.44953266,-0.5280541,1.0323333,-0.38141498,-0.07944392,0.65381503,-0.78645766,0.10121327,0.12786432,0.94356495,0.95990306,-0.17951651,0.866012,-0.7044539,-0.809127,-0.91753805,0.5252366,-0.51784754,0.8027586,-0.9454291,0.6898381,-0.25280142,-0.45155156,0.99971086,0.43725136,-0.775463,-0.9118766,-0.122898474,0.52114797,-0.6519168,-0.05363829,-0.24607226,-0.08307706,-0.61532736,-0.98478955,-0.59034014,-1.0054182,0.110554785,0.87521625,0.84050953,-0.20939833,-0.7067604,-0.35529685,-0.15386713,-0.034119043,0.8521689,0.87237626,-0.5771139,-0.10884784,0.72789395,-0.79897934,-0.64422077,0.4522921,-0.747679,0.5988162,0.5939296,0.7890906,0.2666607,-0.07288908,0.4593469,0.59377855,-0.5257152,-0.67665803,0.3878116,0.15692307,0.30602726,0.115122855,-0.2384758,-0.08105667,0.96547663,-0.86384064,0.90179664,0.46463317,-0.80047774,-0.02296,0.7874137,-0.6226288,0.13759673,-0.84992284,-0.39464688,-0.50578064,-0.30275974,-0.6720392,-0.11224851,0.21330248,-0.9520449,-0.8267658,-0.10995827,0.40289202,-0.82227033,-0.43966714,-0.122637205,0.48183882,-0.12890399,-0.08652403,-0.88406557,0.4744161,-0.83140194,0.57571495,-0.6737433,-0.26413298,-0.9070297,0.473304,0.99788266,0.1401216,0.93330973,0.026190028,0.6579582,0.0056381803,0.3467196,-0.18306595,0.17474245,0.8344642,0.7797094,0.6335056,0.79087096,-0.08092557,0.28016204,0.91839474,-0.67359555,0.6026203,-0.9313604,-0.71337396,0.23140925,0.15220319,0.6837478,-0.14273883,-0.65630406,0.3356845,0.6940803,-0.2756752,0.4324216,-0.4267962,0.20175272,-0.7781238,0.9378728,0.24762522,-0.35737932,0.5888268,-0.4110121,-0.32597277,-0.87338483,-0.8649926,-0.89967227,-0.025576461,0.8061514,0.31931704,0.9067672,-0.8316861,0.88233066,0.8382131,-0.9177618,-0.19813636,-0.0776411,-0.5340335,0.20158224,-0.56301934,-0.3079557,0.27941814,0.16310969,-0.7838002,0.79212916,0.38261446,0.011895888,-0.323619,0.6251478,-0.32317477,-0.44581464,0.0772391,-0.55753803,0.07008017,0.6868209,0.16839871,-0.18756026,-0.10521577,0.8470494,-0.18868768,-0.529172,0.84848124,-0.7613718,-0.73823667,0.037811436,-0.67194504,0.44249076,0.7677586,0.07450166,0.27193612,0.7170754,0.07137583,-0.050846625,-0.6798288,-0.8281284,-0.8589445,-0.68111163,0.6660942,-0.7941018,0.3748312,-0.5154152,0.98007375,-0.8418792,0.69082266,-0.26930186],"weights_ho":[0.4952007,-0.087873325,-0.007435698,0.90982485,-0.04063633,0.08284104,0.9337686,0.8376551,0.4440613,0.6644608,0.42697504,-0.63597345,0.65795416,-0.76967573,-0.4196182,-0.573382,-0.27363008,-0.60080785,0.51276016,-0.25503737,-0.74289197,-0.60402864,-0.41069227,-0.07720618,-0.20863417,-0.40070927,0.8224231,0.24965766,0.8923432,-0.7031194,-0.692371,-0.55770093,0.736546,0.21103498,0.5580654,0.004331301,0.42360514,0.49338016,0.015769579,-0.44986865,-0.36478156,-0.9092748,0.8256933,-0.03712677,-0.9523869,-0.4016776,-0.8924783,0.06987429,-0.7002409,0.38242552,0.92830753,0.373331,-0.7970926,-0.29721722,-0.115059674,0.9216881,0.5350953,0.4750343,-0.5219121,-0.49775395,-1.0288072,-0.8384085,0.31840813,-0.15154369,0.046435453,-0.8701195,-0.85259926,-0.31979743,0.07777844,0.45061424,-0.35185444,0.8138662,0.38815168,0.36343363,0.011684692,-0.45138302,0.1517205,0.11965826,0.66519564,0.57087994,-0.24977495,0.6625093,0.1793842,-0.5947303,0.3049793,-0.5083704,0.32405844,0.08368181,0.6280242,-0.78288907,0.8308967,0.3244111,0.5243503,0.30613133,0.46768293,-0.110025525,0.07071579,-0.32004637,0.7476832,0.43579155,-0.54463387,-0.25134528,0.85121125,0.8337575,-0.90302736,-0.19460423,-0.36833638,0.12331243,0.42980745,-0.836357,-0.8035533,-0.24785493,0.40844622,-0.3846429,-0.12213141,0.5505536,-0.19333471,-0.6180732,-0.4346198,-0.28864878,0.7284434,0.5576964,0.80859315,0.54667556,-0.59927326,0.839898,-0.37873384,0.6895855,0.21960792,0.47618344,0.1484221,-0.99760467,-0.112499185,0.81205124,0.5538374,0.017051477,-0.46364295,-0.5382486,-0.09280064,-0.5072674,-0.91491777,0.7074229,0.78171337,-0.25917953,-0.93788505,-0.1278347,0.8507798,0.90418893,0.64445174,0.20321295,0.25914073,-0.08886419,-0.22348554,-0.89231193,0.73335284,0.4363601,0.61094874,0.892062,-0.5380941,0.49683607,0.2566549,0.27467394,0.59727234,0.94815993,0.33377388,0.36616057,0.63383406,0.08485766,-0.63840944,-0.74179494,0.6957285,0.8318297,0.84853256,0.30073962,-0.8373225,0.791674,-0.90614897,0.31731808,0.3710075,-0.0029213186,-0.80514085,0.78336406,-0.0468615,0.27715442,-0.12128358,0.15886231,0.9636896,0.65408736,0.6274719,-0.5306219,0.01849691,0.16938159,0.03720458,-0.041786205,0.87281746,-0.38697135,-0.63616574,-0.0115345055,0.2858836,0.13964075,0.90027684,0.05247038,-0.7082909,0.38408574,0.1251899,-0.13288258,-0.8846585,0.22775964,0.65938073,-0.3484161,0.62970597,-0.50063163,0.58726805,0.51707584,0.68476564,-0.04023719,-0.78168625,0.71520954,-0.56488895,0.15287888,-0.1548613,-0.54016304,0.3250477,0.9675068,0.7894928,-0.71105766,0.39485633,0.40222433,0.03760283,-0.04840807,0.18514547,0.75132596,0.032957822,0.044885024,-0.830743,1.0009861,-0.63465804,-0.81367075,-0.5693009,1.0209846,0.040542737,-0.7477732,-0.117169924,0.7421105,0.19132666,0.7414865,0.6482056,-1.0030357,0.9556179,-0.8671493,-0.69373846,-0.32960162,-0.0116896285,-0.7781099,0.3190024,0.3922156,-0.49719688,-0.86089724,-0.82848805,0.24884903,0.28075457,0.9374025,-0.15272523,-0.89577097,-0.80996794,-0.26274008,-0.88505125,0.95508033,-0.019649511,-0.26186594,0.9006935,0.1064691,-0.98329353,0.11083592,-0.06039216,0.25904492,-0.64744514,0.5575735,-0.50969326,-0.70735234,0.10279952,-0.11861095,0.92143023,0.1704158,-0.8672296,-0.84241796,0.8751385,0.45596078,-0.9808773,0.85867804,1.014031,0.12975702,0.7036331,0.4526486,-0.49547204,-0.55003047,-0.8084953,0.41498783,-0.69761825,-0.62062687,0.8277865,0.7138171,-0.06513043,-0.63374,-0.34975028,-0.58048695,0.48410282,1.0026776,0.12991184,-0.2626674,-0.025110614,0.18277873,-0.59474367,-0.98261476,0.5593911,0.2984395,-0.007367937,0.788541,0.97831255,-0.3241101,-0.9476916,0.6697342,0.20888765,0.5252776,-0.5325045,0.36986804,-0.23288777,0.53405255,0.28141078,-0.95043415,0.17220514,0.92837244,-0.92592317,0.27737463,-0.20722952,0.93899244,-0.3947785,0.3296776,0.28650475,-0.16615778,-0.9501587,0.1884682,-0.57701457,-0.410888,-0.27161974,0.25343266,-0.39678192,-0.9391595,-0.8460263,0.118167676,0.45140955,-0.15323566,0.47359523,-0.5487054,0.1530392,0.17472762,-0.84391373,-0.23752077,0.8336781,-0.21345992],"bias_h":[0.9626864,0.8275309,-0.9188609,0.4903306,0.69241554,-0.8652366,0.5450364,0.9795135,0.09595932,-0.051711805,-0.59687924,-0.843466,0.24325338,-0.0016084593,-0.79309356,-0.33508992,0.049910773,0.008533405,-0.39375478,0.38116008],"bias_o":[0.02553926,0.92718834,-0.36120912,-0.94719946,-0.29144043,-0.7384211,-0.68509847,-0.23232946,0.030819643,0.007672342,0.647308,0.3097284,0.36385602,-0.61787915,-0.6486889,0.76712644,0.6068278,0.55963385]}}