{"properties":{"input_node_count":18,"hidden_node_count":20,"output_node_count":18},"data":{"weights_ih":[0.16928925,0.29869106,-0.85076475,-0.684059,0.5341847,-0.63994026,0.041267123,-0.35929462,0.85928303,0.92487836,-0.29564238,0.53703517,-0.085551105,0.85123384,0.19612174,-0.67953604,-0.6551955,0.9275238,0.25318795,-0.38340718,0.51757246,-0.68765247,-0.423546,0.48770332,-0.99707776,-0.093225226,-0.79921436,-0.16760476,-0.062146977,-0.35255107,0.30140948,0.6433554,-0.48292926,-0.51399904,0.8736604,-0.77554655,-0.39299408,-0.48341635,0.5297391,-0.46776846,0.6326961,-1.0154253,0.51653695,0.6453397,0.28944913,-0.9574482,-0.95235705,-0.8140676,-0.15439285,-0.015326174,0.80424184,-0.36340794,-0.22740315,0.4783826,0.2981884,-0.42779696,0.16663522,0.23316167,-0.84314054,-0.56762016,-0.13593552,0.4355496,-0.60101146,0.009049354,-0.043339025,0.07743454,0.5561679,1.0012904,0.31701255,-0.4010312,0.41342115,0.64271,-0.34044397,0.80767405,0.18847725,0.49310276,0.23667632,0.64360774,-0.64130765,-0.3319916,0.024095166,0.6570204,0.69742185,0.3855474,0.08677441,-0.5218279,0.9270621,-0.005158565,0.25379905,0.94128853,0.10898121,-0.94616216,0.111136876,0.24982381,-0.6468528,0.7560163,0.3805077,0.8695374,-0.7872376,-0.1910607,0.121533364,0.2468028,-0.69822514,-0.3073788,0.62585735,0.5430677,0.7010877,0.03865771,0.12471921,0.23101819,-0.20718454,0.42454013,0.8958361,-0.7194172,0.4290815,-0.053491987,-0.53079975,-0.5008793,-0.70860857,-0.5353181,0.27973238,-0.5730134,0.7620056,0.13706213,-0.773733,0.74752903,0.3072278,0.85211354,0.48732054,-0.77869594,0.1303859,0.0015330287,0.71035564,-0.39139563,0.09469457,-0.43760368,0.9254606,0.4346575,-0.1623693,0.28461468,0.56043136,0.0036885543,0.7433121,0.812081,-0.12844127,-0.14984018,-0.94152945,-0.52740115,0.58874434,0.66695356,-0.5433942,-0.030862734,-0.13387945,0.35538727,-0.56301177,-0.3151343,-0.21424894,-0.23194732,0.061632246,-0.33293173,0.15570326,-0.31265423,-0.24253435,-0.011910155,-0.38866386,0.87945324,0.49329844,-0.22334124,0.40457305,-0.31997392,0.13297975,0.8108706,-0.57470167,0.55288804,0.9989934,0.6123582,0.0077252113,-0.7529682,0.096950226,-0.17910013,0.44780853,0.9705633,0.6292923,-0.49640822,0.7032608,0.17240179,-0.17105758,0.79953426,-0.77978677,-0.541754,-0.87024945,-0.6980397,-0.77492714,0.3424641,-0.4750965,0.8256218,-0.7087077,0.7328322,0.47409573,0.79972607,0.68630296,-0.2909582,-0.26338914,-0.8218263,0.04107002,-0.7874999,0.74315435,-0.96430874,0.54657495,-0.27607208,0.43091053,-0.58497924,0.49103492,0.7623961,-0.73364484,-0.8618349,0.5745076,-0.22507882,0.47388342,-0.3319521,-0.7291002,-0.41946238,-0.40287486,-0.5215667,-0.81843615,-0.4870061,0.88204587,0.5148815,0.7051369,0.85982865,0.11994315,-0.1010042,0.27644426,0.53108877,-0.31178325,-0.80988616,0.20731436,0.9424205,-0.40699464,-0.13409297,0.811131,0.72725725,0.30262056,-0.2011025,0.923326,0.5753062,-0.81688976,0.8130124,0.7363586,-0.4689454,0.59365946,-0.4508646,-0.85877705,-0.7413862,0.12523359,-0.8893152,-0.047436535,-0.08937471,-0.64861006,-0.22918041,-0.31832236,-0.4006151,-0.37154323,-0.05751074,-0.60957897,0.47927415,-0.72830725,0.799224,0.8101441,0.6605288,0.48885396,-0.50711817,-0.78335565,0.08225365,-0.21561147,-0.84646684,-0.17950709,-0.33771706,-0.010058872,0.9483887,-0.78865975,-0.97835016,0.58636785,-0.49984297,-0.13931157,0.55408627,-0.5632128,0.31070706,-0.84013766,-0.5208372,0.3333747,0.17991853,0.9422346,0.38118625,-0.82609093,-0.02531599,-0.12487285,-0.79869896,-0.4412195,-0.47502756,-0.102061816,0.33740866,-0.67063427,-0.58082217,0.92108655,0.9070497,0.18491599,0.37676096,-0.9124986,-0.05573845,0.53336954,-0.63857585,0.12817985,0.58635163,-0.12009551,-0.1401738,0.48096842,-0.58217055,0.5746304,-0.42547935,0.5961366,0.9093718,0.33077675,-0.27240807,0.7063837,0.60670656,-0.52145505,0.69900244,-0.3940978,0.6152438,0.81996703,-0.1259366,0.82798386,0.6656134,-0.44263816,-0.07976086,-0.35813454,-0.11803668,0.5138595,0.32487348,-0.21053267,0.24237244,0.2018341,-0.7000005,-0.92794377,0.8832027,-0.85710454,-0.53907967,0.13838379,0.68111306,0.23795843,-0.81312066,-0.79370004,0.7449859,-0.9273435,-0.20537502,0.6699081,0.18132104,0.25525832,-0.83315915],"weights_ho":[-0.5074145,-0.6298972,0.28445658,0.082324974,0.057135947,0.8284555,-0.33605635,0.89815855,-0.23087041,-0.80479443,0.30729488,0.618281,0.31788826,-0.90828633,0.19575651,-0.27009174,0.13377307,0.5404101,0.5000317,0.08236308,0.4333822,0.08388393,0.5097615,-0.13940047,0.42997953,0.45030573,0.19986923,0.46607986,-0.8945177,0.74281055,0.58622295,0.38046443,-0.95672214,0.42617032,-0.871305,-0.5241235,-0.78886557,-0.5725502,-0.62521315,-0.64889795,0.4890521,0.6729975,0.5941474,-0.18379286,-0.47854716,-0.80007136,-0.52105635,0.2929039,-0.1704273,0.36918178,-0.42639884,0.37935957,-0.18486854,0.35751015,-0.8974844,0.00059955195,0.9761474,0.19543159,0.7083612,-0.5946706,-0.8345026,-0.67935693,-0.67065114,-0.31714955,-0.23545691,0.65149266,0.8997982,0.40069273,0.3614132,0.72444755,-0.1366734,0.13292496,-0.0050919726,-0.06798598,-0.8480942,-0.695905,-0.7414148,0.93185836,-0.5828993,-0.24527521,-0.961588,-0.20518377,0.14153415,0.4788103,0.1966623,-0.53290904,0.17810202,-0.76452094,-0.009656271,0.51791763,-0.16261417,-0.010959337,0.7832745,0.048308037,0.21435098,-0.43608487,0.62526053,-0.96312535,0.16755477,-0.6025678,-0.44434926,0.018451866,0.65379137,0.9601696,-0.3852387,-0.008819398,0.015926013,0.4067768,-0.5499738,0.27327502,0.37227556,-0.71825504,-0.8253221,-0.6104721,-0.29732156,0.59962034,-0.8573705,0.61090684,0.49729735,-0.9060663,0.43299043,-0.07806653,0.24284667,-0.5549264,0.43514657,-0.42325923,-0.71073765,-1.0027916,-0.36303446,-0.33216017,-0.6083306,-0.28511125,-0.45134676,0.3134789,-0.6466142,0.9601072,-0.73521495,0.7553905,-0.11310744,-0.42503658,0.8488301,0.6430366,-0.07940439,-0.65851307,-0.9179131,-0.7123024,-0.26982126,-0.32582876,0.21568747,-0.879312,0.13128927,-0.14735055,-0.0034853038,-0.44601908,-0.7620707,-0.4913111,-0.7128147,-0.88928956,-0.20291585,0.47228876,-0.5289926,0.72583145,-0.9151447,0.793689,0.9246601,-0.086436994,0.27578303,0.72213423,0.07527463,-0.65961516,0.7718417,0.98857635,0.1639645,0.8320819,0.99858963,0.4284869,0.71922225,-0.2611694,0.7988874,-0.9576511,-0.5585077,0.96765614,0.11797603,-0.3906589,-0.7245834,0.23959604,-0.9041507,0.35919666,-0.7328874,0.054223944,0.5824851,-0.11988049,-0.38499436,-0.16279139,-0.51571876,0.4995732,0.9795724,0.5165768,0.7935121,0.71299803,0.6758249,-0.19881254,0.7032856,0.88077366,0.8920929,0.36681074,-0.49072912,0.9167062,0.8372594,-0.47529852,0.09952377,-0.5673583,-0.99050933,-0.558833,-0.7247634,-0.63700086,0.0823828,0.2945761,-0.7599913,0.51313263,0.34590918,-0.22356813,-0.6375565,-0.8623061,-0.9611324,-0.17428687,0.77846354,0.91130394,-0.65953374,-0.8416502,-0.60818595,-0.10076861,-0.94027656,-0.050748985,0.16911986,-0.75019234,0.28431964,0.66181636,-0.69106364,-0.60924906,-0.8181491,-0.7295872,-0.9657724,0.9740759,0.13727891,-0.6447247,0.4199826,-0.85264874,-0.8501362,-0.6595217,0.73098797,-0.23327835,-0.5621483,0.66104305,0.053025935,-0.18235795,0.58394694,-0.47846273,0.12356193,-0.71951425,0.27674648,-0.28176802,-0.5104913,0.111461185,-0.95149106,0.7940258,0.22702986,0.2242134,0.15270431,0.88387364,0.6268277,-0.21931508,0.24215949,0.5184019,-0.99036795,-0.05245185,-0.08909578,-0.44112334,0.9689324,-0.57918364,-0.67214006,0.31129438,-0.47775468,-0.35181743,0.73702204,-0.39566588,-0.86840594,-0.79168373,-1.0058036,0.5823509,-0.062306225,-0.09301479,0.8249395,-0.15035799,0.8917503,0.0012231767,0.7872711,0.26031807,-0.51195073,-0.066154666,-0.82913226,-0.79534984,0.87831587,-1.0114102,-0.71141154,0.45045888,0.17542766,-0.9281715,-0.9124893,0.9055988,0.47385123,0.82824624,0.81734824,-0.3051518,0.5438293,-0.5815667,-0.6651307,0.25601062,0.97883487,0.34874153,0.3225085,0.102077134,0.5022528,0.4269888,-0.31616458,-1.0002964,0.18157563,-0.9020876,0.44111308,-0.013037847,-0.053337075,0.4146509,-0.50429666,0.31866604,0.94353586,0.049593423,0.6320073,-0.05903274,-0.8134649,-0.407918,-0.7080207,0.80066466,0.23018894,0.8752213,0.5087009,-0.33409938,-0.7931001,0.06893549,0.22020668,-0.033594992,0.11738398,0.12435769,-0.9487151,0.8176068,0.6797249,0.23643035,-0.46210426,-0.9794406,0.056458954,-0.10848624],"bias_h":[-0.70496064,0.31991223,0.5902462,0.71630883,-0.24305256,0.117072254,0.6183573,0.13873586,-0.20551407,-0.43313956,-0.8174906,-0.45658913,-0.16990197,-0.7278245,0.5087187,-0.8105079,0.37991232,-0.9296259,0.550138,0.020061845],"bias_o":[-0.35740364,-0.25379777,0.73667777,-0.6679246,0.08162664,0.8936199,0.0041748853,-0.09688054,-0.13465634,-0.4469622,-0.34079185,0.82321674,-0.8454644,-0.39050007,-0.10212028,0.63864434,-0.62087756,0.33027264]}}