{"properties":{"input_node_count":18,"hidden_node_count":20,"output_node_count":18},"data":{"weights_ih":[-0.8287997,-0.74045116,-0.05379716,0.8995741,-0.014908235,-0.10781914,-0.3698008,-0.8223308,-1.0131396,-0.43346533,0.2917372,0.5408375,0.22060476,0.4169721,1.0007911,-0.5009342,0.52606136,0.16403021,-0.20308547,0.48850146,0.5324937,0.66706043,0.5952352,0.44815546,-0.516063,-0.48254183,-0.06278219,-0.3827434,-0.5743031,0.9912252,0.48465115,0.8191636,-0.0027485117,-0.11173673,0.109433524,-0.6080482,0.9958125,-0.1260422,-0.32039252,-0.8912122,0.37800965,0.7559365,0.062336676,-0.044836126,0.38610998,0.69103,-0.912882,-0.36599892,-0.26528254,-0.9746104,-0.99938005,0.80705255,0.2950164,-0.009325163,-0.7875696,-0.37891746,0.6388718,0.262192,-0.36774114,0.35490274,-0.75457287,-0.8003604,-0.04191069,-0.42620674,-0.27444878,-0.7244858,0.10799331,0.60250944,-0.42396456,-0.19799419,-0.29341507,0.15715677,0.85913783,0.4336708,0.17182411,-0.8296343,-0.3336612,0.1325657,-0.5740563,0.11728056,0.08956336,0.5922252,0.8446183,0.51764274,0.14992344,-0.81302726,0.8017905,0.5489161,0.73822093,-0.8213281,-0.2909579,-0.011666661,-0.041250862,0.50794506,0.06983413,0.05003938,0.69811213,0.16285643,-0.73557675,0.8407543,0.80214244,0.52015334,-0.86866885,0.33147472,0.9584294,-0.42896688,-0.9548206,0.46200976,0.92643416,0.5830879,0.21147436,0.66011286,0.51050806,-0.67508155,-0.6174253,0.3293731,-0.34172592,0.38057917,-0.82621294,0.7302801,-0.5494112,-0.2159132,0.71652496,0.9535403,-0.68300736,0.2373606,0.3046875,0.61149627,0.64272195,0.22019003,0.7853967,0.8888076,0.7196195,-0.71624064,-0.613216,0.0093038175,0.4671566,0.62361413,0.10496993,-0.9988242,0.21027017,0.91622543,-0.1913724,-0.21476099,-0.966976,0.34949583,-0.914702,0.89353985,-0.51721334,-0.48573473,0.65518636,-0.9361753,0.77247435,0.9746808,-0.006489549,-0.5879886,0.20925368,-0.9644381,-0.23573852,-0.4557475,-0.6537516,0.74598324,0.18351644,0.35836223,-0.299782,0.10661534,-0.6516784,0.53664833,1.0012558,-0.52743083,0.12112829,0.49645942,0.75409824,-0.020392988,0.35641605,0.75520265,0.5086373,-0.17961267,0.8120608,-0.10590122,0.42177227,0.83172584,-0.6760869,-0.079153284,0.25550997,-0.64982903,-0.37126845,-0.10278831,0.5245524,-0.119842276,-0.60813123,-0.88172513,-0.30523098,-0.8463783,-0.6700645,0.08984161,-0.12869999,0.35875314,-0.5778934,0.6284926,0.5804551,0.8534452,0.68654615,0.36172682,-0.9901349,0.11992533,0.2222815,-0.8622167,-0.19328628,0.78366244,-0.7219256,0.20749697,0.8765401,0.5039337,0.1278503,0.38946515,-0.63314617,-0.44333205,0.8334455,-0.47575837,-0.69434845,-0.9895649,0.13631782,0.037554294,-0.68392867,0.06592626,-0.14398271,0.4045506,-0.6650854,0.14023039,0.10670682,-0.5215578,-0.4664869,0.1237854,-0.5022158,0.28880274,-0.5243233,-0.49712586,0.6238971,0.5012553,-0.2768515,-0.42222148,0.3942815,-0.39431843,0.49258092,0.38954297,0.04962136,0.7700796,0.2639493,-0.41166332,-0.60519314,-0.87371624,0.41117045,0.7276674,0.7004859,0.9334954,0.080200024,-0.9543788,-0.5157478,-0.48889437,0.0051473347,-0.40524048,0.8539217,-0.73648,-0.39607593,-0.4443375,0.104887135,0.39810574,-0.15858419,-0.927974,0.67770267,-0.28757533,0.17958447,-0.91580313,0.8403523,0.8200931,0.03874491,-0.69538885,0.5274613,0.75925976,-0.88962555,0.7780151,0.9159727,-0.13857038,0.047781665,-0.52917314,0.9860593,0.14733303,0.0045820316,-0.7208127,0.47232297,-0.61986685,0.8555849,-0.7143626,0.70421153,-0.85143167,-0.71052426,0.26097098,-0.26182604,-0.10251282,0.34748617,0.19184764,-0.17808615,0.009238761,0.6049774,-0.70984435,0.94853693,0.19164151,0.27004418,-0.70159006,0.1882997,0.9449781,-0.42028,0.71745974,-0.7714038,0.1821158,0.58095974,-0.63310087,-0.8953643,0.81445014,0.9502256,-0.62956816,-0.6273202,0.22499223,0.81779134,-0.81596535,0.7718299,-0.61795396,-0.34093133,0.6142434,0.6077771,0.54235613,0.5622933,-0.8540802,0.9904632,0.33308792,0.830673,-0.77382356,0.56703913,0.11477847,0.7095617,-0.49805155,-0.7216157,0.5020806,0.16114482,-0.15568441,-0.95924854,-0.70922005,0.88769555,-0.5617824,-0.5836928,0.3268343,0.72245485,-0.79627734,0.8558419,-0.19145776,0.9068847,-0.23832981,0.916032,0.492838],"weights_ho":[0.72749424,0.92095214,0.87289804,-0.43978572,-0.52341974,-0.29392147,-0.71515834,-0.08896996,-0.5551327,0.008489594,0.04243461,0.49065822,-0.41867015,0.08952466,-0.8955326,-0.53581244,-0.93888366,-0.014300663,0.07599199,-0.41042292,0.7190652,-0.82040703,-0.94331926,-0.4840663,0.2657417,0.76598024,0.61025995,-0.0029692696,0.37423128,0.7981793,-0.1528829,-0.4771955,0.9591084,0.042866945,0.5451435,0.5184833,-0.085535765,0.36011901,0.42510912,-0.5152107,1.0191317,-0.20439076,-0.21350019,0.05532761,0.9838331,-0.3658089,0.73758453,0.36205682,-0.09213739,0.7542169,-0.03776955,-0.8734041,-0.6718375,0.9503613,-0.89721507,0.44468927,0.115813345,0.8084222,0.8237981,-0.39474565,-0.5255493,-0.48232082,0.6846113,0.9447785,-0.39114928,1.0036227,-0.071645364,-0.44642955,0.9480439,-0.7075518,-0.43229616,0.6869051,-0.40294302,0.6564783,-0.2365366,0.086242326,-0.20385104,-0.57562894,-0.8407101,0.09919389,-0.90580046,0.41278964,-0.4926377,0.9003963,0.15244952,0.33611178,0.55012786,0.6152059,-0.58258224,0.6521206,0.4828053,0.9728278,0.6424236,0.80545825,0.87190986,0.9029295,0.81196195,0.39586502,0.6670026,-0.9116559,0.42175642,-0.6332146,0.19341853,0.9734626,0.09439273,-0.20924978,-0.06077998,0.8183219,-0.8238448,-0.71884936,-0.109563015,-0.7284105,-0.00496719,-0.09630373,-0.54590815,-0.86427474,-0.28351605,0.17676865,-0.30562207,0.26971388,0.67296475,-0.5545519,-0.11281962,-0.84600675,-0.56984013,-0.12594634,-0.9665624,0.3518947,-0.8827328,-0.094487995,-0.66228735,-0.7900464,1.0038428,-0.4886165,-0.18831006,0.9445828,0.35765135,-0.5434798,0.89049584,0.42323953,0.23405887,0.22662961,0.57319254,0.7297914,0.023767114,0.23737814,0.46914065,-0.15344717,0.028517002,-0.06778365,-0.90705264,-0.028645322,-0.007678012,-0.17709331,0.368262,0.38169897,0.9097936,-0.26943418,-0.5182246,0.6187039,0.91336477,-0.3490789,-0.48669487,-0.24359995,0.7116216,0.99808335,0.09956026,0.6052605,0.48748106,-0.48155847,0.8294887,0.09633301,-0.77776414,0.57237715,-0.006594274,-0.21548933,-0.06906113,0.35869202,-0.13703497,-0.5943167,0.93438727,-0.09910093,-0.7678275,0.72117555,0.21185507,-0.4734357,-0.9969945,-0.05201128,-0.94228345,0.2601977,-0.7790994,0.07958686,0.35833755,-0.017992407,0.29398027,0.98507094,0.12516232,0.6086657,-0.195547,0.27227795,0.22460799,0.14538267,0.6923276,0.17881542,0.6223402,0.40492544,0.36640665,-0.01625608,0.99406624,1.0110921,0.686804,-0.7079969,0.89113784,-0.12822488,-0.5696621,-0.4619548,-0.1362833,0.9649109,0.2975795,-0.62579817,-0.06125,-0.0047183037,0.14932726,0.19203077,-0.46385413,0.7332079,0.6367241,-0.75900686,0.849886,-0.31402385,0.7186023,0.058675356,0.7214983,0.28360996,-0.26443577,0.582971,-0.41911933,-0.2595281,0.035476375,0.82944566,0.7201754,0.11152068,-0.7162754,0.81838727,0.96080416,0.888273,-0.7981542,-0.7398289,-0.9880349,0.13271391,-0.4468529,0.5269443,0.24463513,-0.67690116,-0.34618947,0.5121142,-0.7872194,-0.23385601,0.5710441,0.34131098,-0.41320917,0.40434524,-0.865039,-0.104316875,-0.8434496,-0.15814558,-0.31331813,-0.04850076,0.6227549,-0.6007573,-0.36536485,0.25470296,-0.53049713,-0.50487435,-0.3398392,0.17296557,-0.89499056,-0.73917305,0.8644441,0.85236174,-0.7988182,-0.079968825,0.18301062,0.1224436,-0.94963616,0.28276622,0.97739756,-0.0044056843,-0.6122856,-0.3502816,-0.9130735,0.7184652,0.10894311,0.9083463,0.29133403,-0.6270779,0.5203408,0.5404111,-0.8528848,-0.622685,-0.1997994,1.0438315,-0.51265377,0.4074019,-0.2096932,-0.7461318,0.34331208,0.73756903,0.84641504,0.78590715,-0.19731453,-0.19842638,-0.2957475,0.08101283,-0.8145865,-0.22078383,0.62683105,-0.33842584,0.22697985,0.24054587,0.9694323,0.7411007,0.9336134,0.4227513,-0.28364202,0.08385796,-0.07382184,-0.547079,-0.19530134,0.66922665,-0.5614764,-0.22735263,0.6641246,0.81582963,0.7506285,-0.78299576,-0.3945865,0.12973875,-0.3838865,0.49169132,0.92157984,0.6541649,0.5618868,0.13317773,-0.9094883,0.4396627,-0.58616203,-0.05617585,-0.37859976,-0.13591158,0.50128615,0.80905205,-0.83325946,-0.6321572,0.8985742,0.09340257,0.8622429,0.65248495,0.30215782,0.25355512],"bias_h":[0.53375345,0.65524906,-0.093189016,-0.35958973,0.36501062,0.60214204,0.8815619,-0.23137644,0.46832958,0.10177817,0.83322924,-0.38702986,0.16268581,0.76050013,0.23568395,-0.13804738,0.8910135,-0.94444406,0.8283548,0.60614884],"bias_o":[0.3845954,-0.49555045,0.7517597,0.27336377,0.29666173,-0.862245,-0.6640012,0.8037339,0.9762895,-0.9031272,-0.62818134,-0.43137124,0.4807547,0.21382646,-0.5896223,-0.08815233,0.17497908,0.14384635]}}