{"properties":{"input_node_count":12,"hidden_node_count":20,"output_node_count":12},"data":{"weights_ih":[-0.6876117,0.63238394,-0.845041,-0.84961873,-0.96968657,0.70553476,0.34969583,0.0345947,-0.23368959,0.42434338,-0.9105605,0.09149902,-0.89247996,0.13494097,-0.67582065,0.55783254,-0.06921688,-0.9470828,-0.10732572,-0.817578,-0.13863462,-0.7014918,0.16645333,-0.57822,0.4180556,-0.948507,-0.74710655,-0.49493358,0.6723391,0.8768584,0.98112625,0.50190455,-0.4360029,0.18577272,0.7650758,-0.35075733,0.9429508,0.7489769,-0.2211882,-0.00007379521,0.0322554,0.42816752,0.19329546,-0.4614952,-0.8962379,-0.12094169,0.5410399,0.1213259,0.96503353,-0.7161974,0.44351786,0.8783749,0.38855675,0.8316757,1.0043082,0.7426851,-0.7848925,-0.26718503,-1.0269272,-0.009539609,-0.099259086,1.0105301,-0.15593508,0.40795577,0.23027205,0.056489665,0.4875752,-0.42474595,-0.1476664,-0.3523343,-0.4879742,-0.9902856,-0.42208812,-0.7233234,0.16388695,-0.906894,-0.7566811,0.4127854,0.23792484,-0.49963894,0.27576858,0.1324436,0.8418255,-0.60787624,0.78143,0.03951841,0.3507203,0.44698244,-0.9314728,-0.64817476,0.59990406,-0.99647146,-0.39807427,-0.39079165,0.8101747,-0.18029398,0.28372538,-0.88144624,0.6277551,-0.6802365,0.9313022,-0.3981656,-0.39508522,0.6002802,0.99935514,-0.88768697,-0.7572604,-0.85384166,-0.096143305,-0.9491128,-0.77929384,-0.21435408,0.49047232,0.7493161,-0.2612739,0.61580443,0.9193048,0.92802787,-0.17150082,-0.0970783,0.8033006,-0.91889304,0.006766201,0.30192468,0.49820346,0.40560123,-0.5820481,-0.47748393,-0.5032731,-0.6423384,-0.76504797,0.48891604,0.29020756,0.32345834,0.93247813,-0.15004453,0.7522442,0.02065808,-0.9039747,-0.80990565,-0.29443726,-0.6642224,0.8401164,-0.61688244,0.6085679,0.063734375,0.93506074,-0.8787654,-0.56525964,0.87190104,-0.7837521,0.010800227,-0.13284135,0.055780485,-0.7246297,0.8647652,0.6165386,-0.5524765,-0.40512747,0.6020241,-0.68528897,-0.88951266,0.8984021,0.7511944,0.054384794,0.6262791,-0.3109128,-0.64526856,0.4583432,0.89410186,0.6371618,-0.39851594,0.26020074,-0.71316177,0.62689364,-0.4604938,0.7833039,-0.0023667128,0.6973779,-0.5985493,0.96143746,-0.8272792,0.2097881,0.44418633,0.55254865,-0.8324812,0.15937634,0.99923533,-0.75410175,1.013367,0.017807072,0.16851468,0.53745323,-0.4549748,-0.37590024,-0.55996925,-0.70138395,-0.05232054,0.000051733106,0.73485696,0.745569,0.4813347,0.31488964,0.27979365,-0.7972183,0.457199,0.9057461,0.11513087,-0.8461905,-0.7579524,-0.6119052,0.8131136,-0.94748706,-0.3087031,-0.82531446,-0.6178106,0.4254498,-0.071938254,0.13774718,-0.035396907,-0.7570422,-0.055569038,0.9676183,-0.012818182,-0.44833308,0.41890532,-0.76956016,0.25559574,0.15826648,-0.13842079,0.8310017,0.8057458,0.07441573,-0.8137211,0.5524491,0.618287,-0.63178027,-0.42625102,-0.8005767,0.17365986],"weights_ho":[-0.8282502,-0.426746,-0.98102117,-0.04297575,-0.31109515,-0.077097714,-0.9559424,0.8844868,-0.730255,-1.006587,-0.1016507,-0.3904851,0.63774055,-0.985872,0.41356865,-0.34302932,-0.091619596,0.013512233,0.03539782,-0.5692785,0.91852397,0.43326786,-0.888053,-0.74592185,-0.3001864,0.43628028,-0.7958344,-0.53784966,-0.2946314,0.9096473,-0.9795896,0.7057709,-0.6448715,0.9435314,0.293751,-0.74856764,-0.83041924,-0.08697791,0.5366053,-0.038375586,0.73453265,-0.18139206,0.14874542,0.98334473,-0.1160751,0.07978761,0.037616696,0.50418514,0.5609292,-0.2570618,-0.49405706,-1.0008225,-0.5197915,-0.57012427,-0.26573718,0.51056015,0.46955177,0.042729437,-0.8363962,0.8842604,-0.542871,-0.38952932,0.09416784,-0.25810248,-0.00034875236,0.7737298,-0.3777532,-0.49128014,0.73541254,-0.6972561,-0.0841991,0.8653129,0.27103308,0.17376983,-0.16563185,0.9251547,-0.76833314,0.35823762,0.079593025,0.58428496,-0.5437704,0.022945255,-0.8319122,-0.3188815,-0.22398666,-0.04694251,0.6202174,-0.8191057,-0.25775856,0.7321139,0.9639478,0.089313015,-0.076919205,-0.5953564,-0.58719105,0.33504307,0.17182316,0.9527228,0.48663557,-0.9051335,-0.06563108,-0.098719545,0.28789097,0.9241414,0.113927744,0.4993707,1.0192894,-0.7091064,0.18135606,-0.10099621,-0.9586834,0.7479508,0.7546958,0.91631,0.05100913,-0.48481572,-0.5662621,-0.0043661804,0.36805096,0.8995191,-0.6612483,-1.0094091,-0.7819829,-0.30002037,-0.6936337,-0.81337714,0.3555182,-0.8247594,0.13781258,-0.75858724,-0.50128,0.36606643,0.4525744,0.3342239,0.9051068,-0.49908763,-0.6171112,-0.57716244,0.73073274,-0.5060952,0.30151144,0.6871333,0.26846784,-0.38120493,0.2370209,-0.49455413,0.831179,0.110733815,-0.41490448,-0.047144573,0.5262336,-0.7147495,-0.5783869,-0.27448872,-0.85930586,1.0078368,-0.40102255,-0.30424982,-0.07092195,0.39709887,-0.9563841,0.7500397,0.44400305,0.5921898,-0.0156657,-0.27599326,0.039987676,-0.13949378,0.37101415,-0.12710847,0.23628923,0.55393755,0.74930143,-0.81952983,0.49327728,-0.28546417,0.6207991,0.41525865,0.95863914,0.42906043,0.8398664,-0.40081206,-0.024852585,0.68250346,-0.1503498,0.62319976,-0.0013635275,-0.7033409,0.6825602,-0.73741496,0.27696794,0.046424475,-0.30020058,-0.06424939,0.25113535,-0.8633442,0.39747545,0.129085,0.2809583,0.51721776,-0.6151252,-0.55261856,0.87769413,-0.28812733,0.46999326,-0.28361854,0.117636174,-0.9079496,-0.47394052,0.45841408,-0.11478105,0.047111362,-0.572643,0.4624051,-0.94268435,-0.52520514,0.22350833,0.90219456,-0.43601796,-0.67971396,-0.18236756,0.08496466,0.1692521,0.67409605,0.6880308,0.53825885,-0.924217,-0.53912175,-0.16963089,0.6313583,-0.19497247,0.12617916,0.66557014,0.66570705,0.46143708,-0.20835738,0.3537679,-0.7824236,0.26388425,-0.3353598],"bias_h":[0.06984416,0.8652365,0.58693755,-0.1266074,0.8623836,0.67618877,-0.07222008,0.97279817,-0.44224507,0.9330707,0.48513392,-0.71061254,0.70084417,0.48761073,0.04324223,0.38522908,0.65079546,0.32232046,-0.4172055,0.84189945],"bias_o":[-0.61698437,0.34724578,-0.40810004,0.23608775,-0.22755806,-0.52821445,-0.5312645,0.25264987,0.4334365,0.5446406,-0.04869653,0.5643739]}}