{"properties":{"input_node_count":17,"hidden_node_count":20,"output_node_count":17},"data":{"weights_ih":[0.64494234,-0.42554617,-0.0784432,-0.13212742,-0.33438823,-0.7137172,-0.7923151,-0.14298698,-0.7869324,0.9904599,0.28302953,-0.11070928,-0.93540233,-0.8670883,0.3354867,-0.78581995,0.43999144,0.8946998,-0.71869516,-0.09442175,-0.28836223,-0.5311437,-0.3394446,0.639545,0.9754122,-0.73519033,0.117456794,-0.57109714,-0.24738835,-0.19033405,-0.6673936,0.8016056,-0.07367864,-0.29525068,0.54307437,-0.8236771,-0.58911526,-0.7793464,0.4220979,-0.3914358,0.24730127,-0.32485574,0.39506805,0.88701403,-0.6522021,-0.023758162,0.66512406,-0.41525888,-0.5477011,0.073770896,0.83033353,0.8440517,-0.25387177,0.1865877,0.2533914,0.28002167,0.01509706,0.8766037,0.08552401,-0.83525276,0.42011225,0.5100298,0.5278251,0.55233556,-0.44922847,0.89182127,0.6879241,0.7248432,-0.7334368,0.7258419,-0.018666286,-0.091509454,0.04727027,0.37607056,0.20513836,-0.31285843,0.66395724,0.3691918,-0.36250582,-0.52554107,-0.7856068,0.04979933,0.41354677,-0.28486052,0.3689323,-0.53048754,-0.1291937,-0.60544133,-0.36827457,-0.8677099,0.9102176,-0.17348307,0.20986173,0.59230816,0.44497347,0.49004966,-0.91645783,0.75200754,0.5049351,-0.84240705,0.8077766,-0.06799345,0.02568387,0.34525475,-0.9826761,-0.0073314672,0.2088267,0.55709404,0.4549815,-0.2406996,-0.46296823,0.85287684,0.1382114,0.42235762,-0.8619611,-0.29996294,0.26655388,-0.5353103,0.019812927,0.8541201,-0.26048517,0.597203,-0.04406582,0.5529369,0.44397572,0.9406992,0.71614695,0.31621277,-0.26346904,-0.98362684,-0.899625,-0.8255947,0.632286,0.38111076,0.4159628,-0.11720185,0.5124254,-0.30312395,0.36339834,-0.3705586,-0.45650053,-0.2025983,0.3244787,0.47480986,-0.21298239,-0.058018982,0.23770261,-0.4760869,-0.16437525,-0.9924192,0.016595997,0.84226865,-0.9748484,-0.39217293,0.10054703,-0.664071,-0.6642182,0.8907247,-0.007741263,0.59229404,0.5932339,0.97648805,-0.82554483,0.41635433,0.7992602,0.5990927,0.5424485,-0.7124068,0.09685253,0.73468584,-0.020031668,0.16699299,0.44497213,-0.9039063,0.21598537,0.1961638,0.007660087,-0.5273908,0.9561175,0.121442996,-0.03230424,0.254975,0.6583334,0.6534037,-0.3925158,0.15088071,0.28695923,-0.5888707,0.085439205,0.7135396,0.8373171,-0.04920712,-0.32303047,0.3642668,0.26770166,-0.7524045,0.4095479,0.47657531,-0.7201097,-0.23388979,0.696658,-0.21474738,-0.73136115,0.5787079,0.48811585,-1.0053841,0.47722405,-0.21574381,-0.020983703,1.0010412,0.27461973,0.6717725,0.02064953,0.24387157,-0.2144147,0.8428192,-0.13985564,-0.76660454,0.72857565,-0.07148736,-0.7016112,-0.42361242,-0.19764422,-0.022069316,-0.6455913,0.14345922,-0.027713958,-0.17236534,-0.8489813,0.027955178,-0.7096994,-0.78236777,-0.06617879,0.5953702,0.27945894,-0.25689805,0.23289166,0.93455917,0.5249491,0.859441,0.8224618,-0.30486456,-0.1369,0.5747033,-0.7691856,0.6076194,0.7003543,0.34451592,-0.5269369,-0.7061715,-0.28936327,0.7595871,-0.89968157,-0.3330871,-0.15293181,0.37108976,-0.8942688,0.0047434373,0.0056387414,0.48991963,-0.5758704,-0.12514015,0.8004209,-0.45364213,-0.9130429,-0.2934734,-0.95388675,-0.45230857,0.0960892,0.3153705,-0.6847941,0.24794634,0.7717468,0.86840457,-0.92641354,0.8500975,-0.7639816,-0.6072361,0.4417659,0.41262564,-0.07994948,-0.46175665,-0.16934338,0.1559907,0.63812375,0.18255599,0.37476322,0.36739698,-0.10702333,-0.013450581,0.594111,0.66778076,0.17536166,0.3410757,0.6736369,0.69060224,0.022628453,0.29806262,0.07385103,0.33606178,0.19267285,-0.32906196,-0.6193039,-0.16646338,-0.38488698,-0.10283207,0.2615863,-0.76262414,-0.0722065,0.3845064,-0.98225343,0.37509155,-0.49186882,-0.83646274,0.22535585,-0.48622805,-0.44831595,0.4851211,-0.5820242,-0.037556212,0.9142899,0.7033195,-0.72063726,-0.851541,-0.5468094,0.68536794,-0.5753014,0.2577162,0.8788069,-0.08267433,-0.2800599,0.8532738,-0.3657512,0.2513569,-0.35614148,0.291215,0.59115225,0.103919044,-0.5550764,-0.31387475],"weights_ho":[0.5109577,0.5703257,-0.554503,-0.8715336,0.40088132,-0.13508914,-0.98837495,-0.5370161,0.3760482,-0.38877964,-0.022577537,-0.19110659,-0.72796065,-0.6885197,-0.6542558,0.9766162,-0.44403884,-0.6435458,0.68402153,0.71855754,0.92665213,-0.045405418,0.36907354,-0.98141,-0.11296007,-0.15204717,0.49240947,0.103761405,0.7964727,0.4138559,-0.48021424,-0.043081164,0.5935977,-0.7658208,0.39243057,-0.35542554,0.480267,0.17903933,0.17138113,0.32190117,0.78646636,0.33468485,-0.09925233,0.6513525,-0.6913464,-0.85242164,0.8904384,-0.39404398,-0.94698256,0.650194,0.24583802,-0.18500349,-0.91155255,-0.62530327,0.68352515,0.6355351,0.82748824,0.1430352,-0.2108689,-0.7856196,0.6368684,-0.35444817,-0.32478064,-0.4153826,-0.52353513,-0.951651,-0.3903022,-0.75280654,0.92196363,0.5714748,0.97902477,-0.20824718,-0.12486485,-0.44954732,0.73675424,-0.37302557,0.0986598,-0.8496909,-0.5336983,0.59684986,-0.76091474,0.62100816,-0.51791686,0.4283403,-0.22593307,-0.3713517,0.7723749,0.21045953,-0.5873137,-0.99282026,0.44277588,0.9712471,-0.029795256,0.61260384,0.290092,0.051038325,0.2897234,0.8639485,0.24048756,-0.672786,0.068951175,0.8185238,0.09422927,0.9609314,0.2980914,-0.66690433,-0.11233885,0.6177817,-0.7806951,0.4281878,0.323767,0.83337325,0.7589385,-0.9397543,-0.030127682,0.3158184,0.11804208,-0.8801486,-0.90803105,0.4659159,-0.46359035,0.71904933,0.1196538,0.8968265,0.5593261,0.74388313,-0.97308606,0.9631196,0.609583,-1.0052332,-0.8515405,-0.2320305,-0.4764765,-0.13940145,0.5258854,-0.13192245,0.064377874,0.12012819,-0.9636088,-0.21900499,-0.038532022,-0.6739811,0.21873799,-0.79697984,0.30768445,0.089171186,0.7271937,-0.5894997,0.76085997,-0.7368712,0.875472,-0.88269126,-0.9436056,-0.18144743,0.9973413,0.32518464,-0.29189947,-0.6202674,-0.58075583,-0.17218612,0.2731215,0.8908303,-0.5700325,-0.6664066,0.56071925,-0.08516075,-0.57788426,-0.30136436,-0.1316387,0.80078757,0.35547563,0.8133232,-0.35142824,0.63821095,-0.7649693,-0.24039744,-0.92747456,0.8913723,0.11375156,0.5856197,0.057224374,0.7589113,-0.5363188,-0.73277634,-0.53898543,0.9807938,0.20892298,0.6384981,-0.0022722157,-0.7059352,0.3845801,-0.54683185,-0.48540488,0.42784134,-0.788956,0.7920086,-0.81280184,0.56698847,0.8132382,0.5491856,0.0013184026,0.1601045,0.5232222,0.5495516,-0.26157334,0.47206718,0.6675692,0.82537454,-0.6620611,-0.7296775,0.9282307,0.31561628,-0.8186423,-0.41262102,-0.71701336,0.64376944,0.553729,0.16259047,-0.2786329,0.75248325,-0.3648477,-0.007903404,-0.9035622,-0.87919617,-0.8336403,0.22653894,-0.40349734,0.37277594,-0.5246029,0.32587737,0.7923811,0.5720764,-0.8074561,-0.73643154,0.55953175,0.093546495,0.5937196,0.016540296,-0.0064189713,0.13573064,-0.71349055,0.7462103,-0.96714824,0.14020383,-0.78602433,0.37541795,0.13935766,0.990954,-0.09745561,0.9339717,0.88815737,0.82160574,-0.9655973,-0.4087801,0.057884805,0.316222,-0.80281866,-0.499246,-0.6279908,-0.31407636,0.7769904,0.3717325,-0.656507,-1.0059468,-0.73153085,0.36945775,-0.5859832,0.9286661,-0.73561037,-0.64181226,-0.18229914,-0.7285862,-0.8099382,-0.86157864,0.49120036,-0.43388647,0.35332948,-0.21987464,-0.8718049,0.5922954,0.4919451,0.020872302,-0.48020297,-0.02783157,0.5328572,0.5619385,0.062094495,0.86597085,0.13321218,-0.8866867,0.2786547,0.8935488,-0.88321227,0.2194986,-0.14106387,-0.24966002,0.40290728,0.082479954,0.7859449,-0.63669044,-0.51476395,0.5413099,-0.09813377,-0.6130026,-0.43936267,0.09442313,0.09338104,0.96645916,-0.44211903,0.096184276,0.43841606,-0.5840247,-0.25823626,-0.049859922,0.98087746,0.1610268,-0.34881958,0.08445153,-0.46394163,0.6061291,0.6387003,-0.7784268,-0.839427,-0.38056564,-0.81275254,-0.10532166,-0.28578758,-0.47001228,0.37261933,-0.49074963,0.9038228,-0.77265733,-0.6062021,-0.9675763,-0.76914996,-0.41353568,-0.10480047,-0.36789322,0.77115047,0.87171924],"bias_h":[0.5538297,0.97144085,-0.53742373,0.5865804,-0.0745873,0.042349078,-0.78379965,0.66578615,0.44302258,0.78638774,-0.6816413,-0.16226225,0.44326547,0.56897986,-0.12659846,-0.29372975,-0.8653072,0.63652724,-0.45828983,0.47835824],"bias_o":[0.10806288,-0.7536325,-0.77407855,-0.8630301,0.13234924,0.2511991,-0.7127628,-0.28764385,0.86764884,0.26089868,0.54370517,0.16152076,-0.00208678,-0.54905945,0.5050658,-0.07728258,0.19863406]}}