{"properties":{"input_node_count":18,"hidden_node_count":20,"output_node_count":18},"data":{"weights_ih":[-0.8637592,-0.4958596,-0.7569321,0.6592842,-0.49736643,-0.7827631,0.6973707,0.06482485,-0.040968537,0.48568916,-0.18512668,-0.39492282,0.123576924,0.06684565,0.8783622,0.77499217,-0.73216116,-0.48399466,0.9872359,0.3146135,-0.67096174,-0.64572436,-0.5247381,-0.91280025,-0.071463674,0.24009725,-0.59969366,-0.9489745,-0.16627358,0.7429989,-0.4108144,0.34244466,-0.32233787,-0.4833831,0.54288876,-0.14097022,0.91360563,0.014798208,0.31646383,-0.7258195,-0.7005533,-0.65571964,0.19116826,0.8894055,-0.0952856,0.00018681586,-0.76220196,0.67861074,0.35657635,-0.9295045,-0.4565994,0.6111826,-0.97335136,0.71587205,0.6566855,0.55250496,0.43415427,0.392642,0.13210103,0.07137713,0.13420935,0.7141327,0.6615335,-0.3769237,-0.5881255,0.8655335,-0.21007735,0.55755734,-0.68204033,-0.10642299,0.36655077,0.38809568,0.0006898893,0.13956791,0.6872664,0.17960311,-0.308941,-0.29695383,0.6123966,0.15965153,0.74450105,0.79586625,0.29780674,0.12510283,0.68432987,-0.15895164,0.8441892,0.4594863,0.37839428,-0.65620726,0.12949713,-0.38047066,-0.9792533,0.20781675,0.9281554,-0.51530623,0.22573155,-0.7077162,-0.3303155,-0.966451,-0.12882009,0.8536638,-0.409291,-0.96443486,0.9562272,-0.27683285,-0.6635744,-0.92451394,0.0069943797,-0.91444296,0.34256393,0.092502415,-0.67983156,-0.6488214,0.86983484,0.4138986,-0.169477,0.40491226,-0.411222,0.6485611,0.8349416,-0.15003577,-0.39909345,0.45506796,0.77039003,0.8432705,-0.22323288,0.6573704,0.35501468,-0.21449235,0.741603,0.2606854,-0.4110204,-0.69203275,-0.37549365,0.24652943,-0.80378693,-0.19406581,0.32182285,-0.83839154,-0.30831414,0.96440274,0.486517,0.37795946,-0.75583017,0.17023624,0.20646162,-0.3615199,0.2982316,0.2937921,0.06611937,-0.8012842,-0.62267476,0.4133,0.42158642,-0.5318649,-0.71062714,-0.5642027,-0.36740977,0.8801589,-0.8728621,-0.96792006,-0.95302063,0.3236558,-0.3857473,0.9455089,0.66991186,0.10684853,-0.7090655,0.6391682,0.79610735,-0.9870211,-0.9783074,0.95828396,-0.19126187,0.2649347,-0.27997217,-0.8299729,-0.74834573,0.12778996,0.5453783,-0.3986204,-0.9636263,-0.89697134,0.54884565,-0.7022695,-0.48706433,-0.06244538,-0.292611,0.19309682,-0.97252893,0.90706813,0.44071743,0.8002555,0.23494814,0.06887551,0.38405535,0.9432974,0.638931,-0.30591875,-0.524623,-0.15898146,0.9390064,-0.7850891,0.6210694,-0.5657344,0.87181395,0.11208617,0.87312514,0.7532399,-0.290381,0.40023488,0.088306785,-0.08457606,0.9519428,-0.49713105,0.45665333,0.65555876,0.84019357,0.9175375,-0.3042542,-0.25092408,-0.41602004,-0.5381368,-0.036729425,-0.6318472,-0.5861071,0.06328927,0.49443513,-0.37532404,0.051553857,-0.6000957,-0.0008837469,-0.09635974,0.8671093,0.8885137,-0.51172495,-0.7828341,-0.32560274,-0.9855844,-0.78710383,-0.65109426,-0.43674803,0.39880547,0.27258223,0.32386848,-0.2175065,-0.6080116,-0.05807562,0.7298617,-0.15159793,0.3667503,0.16810657,0.93599844,-0.6666676,-0.90982395,-0.7151777,-0.7721562,0.23590122,-0.050407343,0.17436166,-0.85570157,-0.21239403,-0.35208192,-0.25129032,0.47001088,-0.2834378,-0.35664618,-0.93526196,-0.35138842,0.69935834,-0.84561837,-0.23006158,0.17082971,0.68833774,1.0022012,-0.78550726,0.02535746,-0.13500383,0.9784519,0.68980145,-0.2019644,0.85187155,-0.3935728,0.8682658,-0.8353431,0.21865419,0.13167349,0.023476828,-0.73999417,-0.21381986,0.6377614,0.48389396,-0.44202125,0.3674992,0.04764822,0.535429,0.78184557,-0.5130268,-0.32936576,-0.09883298,0.0817129,-0.7389337,0.8222459,0.05615809,-0.18302518,0.32489777,-0.94077396,-0.8094503,0.92897415,0.014671294,0.16946165,0.5233422,-0.62561005,-0.6204482,0.018954664,0.555215,-0.98489267,-0.29787394,0.68193704,-0.83851045,-0.23768692,0.39100367,-0.13472019,-0.22061017,0.26805472,-0.027812358,-0.57522404,-0.62717897,-0.39872178,0.6247247,0.94329745,0.9002515,-0.4252932,-0.8378722,0.18251176,-0.20479454,-0.42719918,0.5479132,-0.91873956,-0.26649496,-0.5008425,0.4026332,0.052762643,-0.5776065,0.99302155,-0.77809495,0.9296503,-0.40639034,0.35615045,-0.5217269,-0.47850013,-0.7034504,0.5836813,0.15292205,0.25214362,0.34969842,-0.4039727,0.28077906,-0.63214296],"weights_ho":[-0.7178527,-0.8207609,-0.26295245,-0.8789894,-0.5756619,0.7185724,-0.25086704,-0.8208692,-0.8148599,0.30695593,0.48400202,0.27987343,-0.78834903,0.85512406,0.9781602,0.7396657,0.6154806,-0.0523731,-0.74721694,-0.11590338,-0.28851396,0.4710465,-0.8423748,0.3365104,-0.6854496,0.955556,-0.9270722,0.2674814,-0.5289885,-0.5213287,-0.29679197,0.8500287,0.52979064,0.18093362,0.95573294,0.08554947,0.58689123,0.5992444,-0.2647063,0.06936881,0.89844,0.57688934,-0.6887968,0.51176524,0.44958848,-0.69089425,0.8318471,0.87793475,-0.5098539,0.50335616,0.3354112,0.054245934,0.17305808,-0.029184014,-0.3844762,-0.6351833,-0.2241306,0.9066571,-0.017586553,-0.17478606,0.10257476,-0.93403345,-0.6667439,0.8330618,0.28086782,0.05493447,-0.82043463,-0.27185917,0.5630221,0.94920003,-0.68184584,-0.4396519,0.7001391,0.9837104,0.70343363,0.18627186,0.9008694,0.36569148,0.7526579,-0.74241704,0.8330915,-0.18259372,0.18633342,-0.42365295,0.11458262,0.966273,-0.058216035,0.90114,0.6803114,-0.44196072,-0.5059446,-0.80713874,0.067839116,0.3925775,-0.1877978,-0.36646506,0.64934874,0.69589615,-0.1275879,-0.09314723,0.2958247,-0.687799,0.98937654,0.6211883,0.49453062,-0.12333313,-0.5320848,-0.78747517,-0.8588853,0.7300868,-0.17152837,0.6609256,0.38034332,0.04578003,-0.8044716,0.8108118,-0.5243564,-0.56869626,-0.7488572,-0.09052314,0.7011182,0.038891286,-0.29956755,0.21599919,-0.09084983,-0.0883159,-0.5165203,-0.21980348,0.7906771,-0.39269793,0.5279834,-0.35865057,0.34140167,-0.7036014,-0.3232613,-0.5696685,-0.7803857,-0.93258494,-0.4981975,0.4859553,0.25546166,0.008507226,-0.8666924,0.07285849,-0.7229108,0.32035857,0.1559711,0.70438045,-0.3654073,0.51664674,-0.9076105,-0.3338238,-0.01324323,0.6753046,-0.3636485,0.8581813,-0.9629203,0.7192856,-0.53832656,-0.7782932,-0.6334418,0.61141384,-0.49185437,0.98974764,0.9667498,-0.0386002,-0.5186723,-0.33342603,-0.36474928,-0.378569,0.79569924,-0.22924325,0.3859058,-0.8247345,0.07959597,0.7898884,-0.058568534,0.6737131,0.62655735,0.83633804,0.6504159,-0.7435383,0.40274236,-0.94974786,-0.3936337,-0.3399709,0.6907031,0.33979145,-0.5638648,0.33776748,-0.2887658,0.9602586,0.011097007,0.4765261,-0.7895596,-0.6600275,-0.5654368,-0.6612917,-0.7305855,-1.0116087,-0.9604324,0.26395294,-0.4087404,-0.37785485,-0.748553,0.79814756,-0.09370462,0.37846282,0.6283346,-0.20231946,0.62380207,0.3695651,-0.13369164,0.4476819,0.37945908,-0.20546742,-0.18216768,-0.5557233,-0.07601121,0.9226739,-0.7667075,-0.8601992,-0.4065118,0.19525923,-0.5108423,-0.4706645,-0.94523716,-0.9404982,0.87812173,-0.028158728,0.19526371,-0.31536412,-0.8149139,0.51412797,0.2913206,-0.13616404,-0.050445296,0.56249017,-0.12864275,-0.5842114,0.8408858,-0.69817317,0.32179618,0.36726597,-0.67538714,0.00392871,0.9604873,0.5709198,-0.7433541,-0.18913378,0.66009474,-0.8284142,-0.108563,0.66618025,0.7748481,0.4874962,0.9298239,-0.40892553,0.12897031,0.26957473,0.9628148,-0.1746789,0.44752252,-0.8626471,0.2853791,0.31287235,-0.74741566,-0.522242,0.20251305,-0.91966766,0.84690225,0.169221,0.15898135,-0.40861556,-0.8495834,-0.9036701,-0.6553083,-0.096244976,-0.5970192,-0.67811453,-0.044426847,-0.07222429,-0.07091501,0.1399477,-0.22640938,-0.35396704,-0.63390243,0.39258626,-0.65094066,-0.15151885,-0.1087243,0.8590027,0.8966428,0.5571845,-0.0975031,0.941115,-0.3680378,-0.058235403,0.41723174,-0.59843016,-0.8286095,-0.6629496,-0.19119611,0.00022291392,0.2698783,-0.016380306,0.33947948,0.5925805,0.8782478,0.07364387,0.29820564,-0.76753503,-0.8199017,-0.48652962,-0.9760829,-0.3541468,-0.6042239,-0.80866694,-0.07081717,0.055532992,-0.80279523,-0.6786202,0.8883754,0.33825183,-0.7596205,0.53568774,0.2288804,-0.7762921,0.09213963,0.5861307,0.4626037,0.25165164,0.04863675,0.18545283,0.8848855,0.051839232,0.28927422,-0.80507547,0.8923382,-0.7209121,0.8926461,0.6331404,0.9182242,0.45652252,-0.77511406,-0.0827996,-0.6540296,0.27259126,-0.52264106,-0.6852284,0.48679748,-0.72970325,-0.14982957,0.98755974,-0.79443973,-0.494305,-0.9329516,0.03714713,-0.9215075,0.7798261],"bias_h":[-0.12122014,0.37650067,0.3674589,0.18917969,0.20892891,-0.8817441,-0.4743441,-0.511483,0.11569416,0.036879495,0.49132735,-0.9630138,-0.12981544,0.5147167,0.79344356,-0.16373996,-0.15332252,0.043513894,-0.90869856,0.89943236],"bias_o":[-0.695172,0.19051363,-0.3427322,-0.9459144,-0.29596314,-0.6806374,-0.9299317,-0.7922098,-0.5675895,0.44046775,0.71899766,-0.42679173,-0.55583066,-0.09683977,0.6516127,0.8875793,-0.47791606,0.060246654]}}