{"properties":{"input_node_count":17,"hidden_node_count":20,"output_node_count":17},"data":{"weights_ih":[0.2743616,-0.39378536,-0.33396733,0.22856165,-0.5749121,0.50887626,0.5279816,-0.27996543,0.31730664,-0.48841214,-0.08941257,0.5432685,0.3417239,0.7724294,0.92347056,-0.8118839,-0.76630723,-0.9223035,-0.4994619,0.2935819,0.6943374,0.48476875,-0.7700892,0.3921689,0.044189982,0.5796021,0.06649927,0.062095582,-0.34570152,-0.4272713,0.062093616,-0.04542709,0.44874287,0.76298344,0.34974566,0.6615354,-0.893421,-0.124843284,-0.18094607,0.93415546,-0.072133884,-0.7391707,-0.2564695,-0.39229825,-0.35786003,0.48645037,0.6272844,0.3258461,0.49527362,-0.51283455,0.17960079,0.7522889,-0.6805426,-0.39944944,0.2678738,-0.8788755,-0.18722558,-0.43731326,-0.87491965,-0.8114285,0.6201525,-0.89202744,-0.34280387,0.4736542,0.20211135,-0.5943149,-0.60991216,-0.37223428,-0.45939934,-0.5119983,-0.93823457,0.07129513,0.9092143,-0.19342558,0.118827336,-0.12694603,-0.021044668,0.989286,-0.83315873,-0.8593632,0.7426646,0.5436634,-0.9736583,-0.7194837,0.44698828,0.669515,-0.06079764,-0.0076738824,0.67947507,0.23673752,-0.6994157,0.15651709,0.32750988,-0.8101559,0.99757135,-0.039161947,-0.5104672,0.82612336,-0.10399529,0.593493,0.09951861,0.65414196,-0.13829246,0.6091241,0.029156493,0.11691894,0.09658737,0.8851954,-0.2664928,0.78744274,0.40777633,-0.27469772,-0.29917824,-0.33188865,-0.14712372,0.76665556,-0.15862022,-0.5166703,0.7290766,0.9505735,-0.32177863,0.011090309,0.18711782,-0.83461547,0.98788875,0.88332266,-0.6051788,-0.48594427,-0.8587916,0.9271173,0.23659188,0.46316817,0.5542521,-0.79844064,0.4618251,0.3796545,-0.073429555,-0.9025398,0.5058755,0.1301718,0.24769133,-0.40219626,0.11313495,0.104643226,-0.11469103,-0.74014837,0.6550913,-0.49001613,0.46182168,0.07946608,-0.16294086,-0.25431797,0.66983783,-0.45176196,-0.73406523,-0.15491864,-0.51708615,-0.96440077,-0.5955252,0.3418388,0.59468484,-0.63158745,-0.013608851,0.8376537,0.26324722,-0.63557076,-0.77214086,-0.24569423,-0.86005753,0.5586959,-0.5721158,-0.38014033,-0.6074577,-0.8069557,0.7526846,-0.19294046,-0.5637304,-0.17855127,0.32932377,0.5086819,0.4825137,-0.71522903,-0.729565,0.88953793,-0.52649516,-0.9199371,0.6387993,0.11445968,-0.478743,-0.5632941,-0.12347221,-0.29753384,0.8418467,-0.54455036,-0.66437334,0.23769805,-0.92074114,0.36299092,0.67743677,0.27364832,-0.1834147,-0.0012835683,-1.0051615,0.14356571,-0.4417858,-0.6728273,0.2604983,-0.47563535,-0.14480674,0.98954594,-0.03172404,-0.9658209,-0.9835406,-0.88904274,0.31414378,-0.7211008,-0.85536724,-0.8867062,0.94232595,0.23569144,-0.60438037,-0.09270389,0.34090093,0.58415455,0.0925296,0.41875744,0.9875503,-0.7043529,0.7113285,-0.9392383,0.65183794,0.4185506,-0.6419594,-0.53455305,0.9581901,-0.90586346,-0.13934173,0.4804234,-0.0121454885,0.81012887,0.93693525,0.21675088,0.18231535,-0.46612215,0.5221693,0.383656,0.97364056,-0.030732919,-0.8415446,-0.94865555,-0.08608861,-0.83515006,0.09320846,0.0017622728,0.8753595,-0.5317383,0.26277122,0.7587436,-0.5697233,0.22492325,-0.8316589,0.2692436,-0.33586773,0.30028328,-0.41776925,-0.41925955,0.92535067,-0.70422596,-0.10988235,0.5707402,-0.79208666,0.054354478,-0.8264286,-0.2551125,-0.24340697,-0.6575499,0.04938511,0.83020824,-0.9715038,-0.015231211,-0.38015276,0.8611983,-0.41533172,-0.42607072,-0.32431763,-0.3467705,-0.5979801,-0.19032943,-0.9117421,0.11017659,0.7079421,-0.6193299,0.12500641,-0.9596668,-0.6689275,-0.7148739,-0.47592238,0.19142784,-0.15062112,-0.4789983,0.19916132,-0.70104617,0.33330026,0.9769359,0.5017081,0.6259631,-0.06784931,-0.8183805,0.23527181,0.27595034,-0.9380325,-0.9550052,-0.660177,0.81517816,-0.8624385,0.6218428,0.5672971,0.2520818,0.43232116,0.12650006,-0.101871096,0.39360794,0.6388647,0.3725572,-0.534427,-0.9867497,0.6435087,-0.7346689,0.39368495,-0.49832132,-0.9423213,0.059636004,-0.33077535,-0.52143675,-0.49769232,-0.46506763,-0.25658634,0.008288239,-0.8980559,0.272853],"weights_ho":[-0.46719766,-0.42387348,0.63888663,-0.25268143,0.057032593,0.1302146,-0.8221004,0.76364416,0.3464222,-0.6611229,-0.05091136,0.55172575,-0.08909258,-0.19668941,-0.8255019,-0.8095215,0.4269193,0.6255114,0.650309,0.29712942,-0.0011618547,-0.22633776,-0.7486971,-0.14403537,-0.45471412,-1.0120391,0.9055676,-0.45713565,0.19568723,0.9476976,0.58938795,-0.8451803,-0.9071294,0.038444202,1.0177847,0.17990431,0.9487294,-0.38774493,-0.9231811,0.29545334,-0.5103889,-0.8647734,-0.45726815,0.012505134,-0.625255,-0.6568727,0.59916294,0.7847405,-0.6536616,-0.802061,-0.46543676,-0.42254588,-0.868022,-0.9278242,0.10618573,-0.20023058,0.52652526,0.93830854,-0.8070364,0.022867404,-0.47778267,-0.9652507,-0.9534557,-0.42727682,0.71843433,0.59278333,-0.6614713,0.15829183,0.7835087,-0.80708396,0.34374458,-0.7540804,-0.057380192,0.20954758,-0.1998384,0.16054957,0.73744637,-0.2763899,-0.70798653,0.98662573,0.58378005,-0.9916774,-0.2576132,0.692479,-0.8966682,-0.5488953,0.20107128,0.99339277,0.36747348,0.32033876,0.8358769,0.59503645,-0.357341,0.735752,-0.2444464,0.8002018,-0.5330197,-0.7729138,0.918807,-0.96348727,-0.9585438,0.59136724,-0.48087052,0.8748694,0.6186554,-0.8438903,0.21064526,0.4743754,0.11529522,-0.29945853,-0.43134758,-0.24274302,-0.89255047,-0.18466227,0.18560883,0.17154075,0.3652852,-0.78358877,0.19246565,0.52518743,0.97275025,-0.4063046,-0.33507913,-1.007489,-0.9475489,0.058429755,-0.7307776,0.91850644,-0.1892694,0.5143995,0.5032531,0.5458884,0.07572384,-0.53430355,-0.3411954,-0.64562654,-0.41273206,0.10335782,0.87469363,-0.519288,-0.3872804,0.10071738,-0.988867,-0.8912576,-0.75099885,0.26637572,-0.3530234,0.15072672,-0.74594057,0.10592146,0.82519746,-0.80578786,-0.58215296,-0.82084155,-0.6122957,0.16947518,-0.70475155,-0.7129151,-0.76348084,0.7826905,0.84253204,0.8671932,-0.5456221,0.97443455,0.8302984,-0.6552927,-0.025296103,0.23909993,0.99882865,-0.10978086,0.9430519,0.62224764,0.785456,0.48672816,0.63966054,-0.38837785,-0.82646716,-0.6702734,-0.055191897,-0.94299966,0.7797458,-0.38563505,0.60966104,0.91997576,-0.090627275,0.5065846,0.044425495,0.3067821,-0.37253624,-0.64661145,0.19217837,-0.05929696,-0.5008654,0.64306927,0.65899795,-0.4807935,0.6277635,0.482786,-0.69199944,0.8520489,0.07067412,-0.6127639,-0.3695349,-0.2520648,0.107670225,0.28889593,0.27421394,-0.08163917,-0.19602992,0.31155458,-0.22615378,0.40469524,0.6230693,0.34744042,0.25500268,-0.34561986,-0.51012516,-0.8727493,-0.8629703,-0.96028197,0.9135328,-0.46127644,0.07225652,-0.68490344,0.50230926,-0.40337852,0.8434335,0.9563579,0.21835878,0.6161188,0.8329483,0.39409527,-0.4797692,0.08727261,0.18101723,0.31084806,0.98880124,-0.36579117,0.41904148,-0.075741895,-0.78997636,-0.9598004,0.08430915,0.63317025,0.86854506,0.100594416,-0.8806209,1.0066991,-0.08691516,-0.46355587,-0.4403525,0.11614104,-0.9226201,0.51657,-0.7793664,-0.719166,0.31276754,0.78729296,0.6242418,-0.75844944,-0.90055984,0.3571956,0.85707456,-0.2750608,-0.3853138,0.45012364,0.8002317,0.50738984,0.44542688,-0.50237244,0.54917955,-0.48881048,-0.4567828,-0.680543,0.8067659,0.65816575,0.94673026,0.9787702,-0.13266572,0.5741831,-0.6413331,-0.45910266,-0.4922514,-0.9705109,-0.21042874,-0.45077604,0.18991195,0.44359115,-0.41025195,0.41992718,-0.7086135,-0.7364793,-0.5466441,0.96659493,0.44796455,-0.8373406,0.6940476,0.7475879,-0.7806528,-0.8817976,0.3096441,0.20786318,-0.69207424,-0.09481337,0.25801188,0.80685586,-0.011858204,0.28186792,0.092008546,-0.1697305,0.7326185,0.56142026,0.39739242,-0.17767096,0.24946411,-0.13624337,0.012680817,-0.6250462,0.46129537,0.036979407,0.56419075,0.4243728,0.85624933,-0.60473365,0.72032386,0.66928357,-0.733293,-0.42124635,-0.87490356,-0.52678007,-0.04381963,0.80137056,0.3193449,-0.6286449,0.26727736,0.4500827,0.098750725,-0.49319363,0.33560604,0.33028746],"bias_h":[0.11066817,-0.01294389,0.24753028,0.92896366,0.6822309,0.29183537,-0.042134173,-0.09814971,0.38082927,-0.59656703,-0.7196265,-1.0078037,0.36764944,0.67650974,-0.31976572,0.9784733,0.07906607,0.60811657,0.36969993,0.2842867],"bias_o":[-0.42062095,0.9534846,0.26043278,0.32199287,-0.8973102,-0.6236194,-0.35646334,0.2167613,-0.13233103,-0.6837901,0.80358,-0.5086859,0.1918394,0.89364743,-0.28301,0.15168287,-0.19937176]}}